[
    {
        "ActivationFunction":null,
        "B":[
            [
                -1.0738379512325917
            ],
            [
                -2.1507333553151327
            ],
            [
                -0.27982919727959304
            ],
            [
                -0.5298150220723682
            ],
            [
                0.09153884967345896
            ]
        ],
        "TypeLayer":null,
        "W":[
            [
                -1.3231345700822663,
                0.1909899095277285,
                -0.4277231797675274
            ],
            [
                -0.6756551945104626,
                0.8144103882506073,
                1.3452324619298093
            ],
            [
                -1.3287215386435223,
                0.2861809444439055,
                -1.0546677638431605
            ],
            [
                -0.8600464769883939,
                -0.8724748861778183,
                -0.48616222572339807
            ],
            [
                -0.2706972605659419,
                -0.43191727133054386,
                -0.32468796904253516
            ]
        ]
    },
    {
        "ActivationFunction":null,
        "B":[
            [
                -0.896170317968929
            ],
            [
                0.8367585791436042
            ],
            [
                0.2228641582856364
            ],
            [
                -0.200051863162729
            ]
        ],
        "TypeLayer":null,
        "W":[
            [
                -1.0043284495784672,
                -1.1922463250293034,
                -0.3732893013169215,
                1.724885760198479,
                -0.21836417173447883
            ],
            [
                -1.8715723688545787,
                0.13645519980037188,
                0.48254343461594057,
                -1.446927798314343,
                0.8019499517127842
            ],
            [
                1.012063058331517,
                -0.5905630384208632,
                -0.5434808179364964,
                0.291568183714899,
                0.7692438327406846
            ],
            [
                -0.35200110128833384,
                1.283162932348262,
                -0.375764201989483,
                -1.6715199771405085,
                1.2970078450891422
            ]
        ]
    },
    {
        "ActivationFunction":null,
        "B":[
            [
                0.5095320314816837
            ],
            [
                0.1527946185945219
            ],
            [
                0.43745401955980406
            ],
            [
                1.1213888470968738
            ]
        ],
        "TypeLayer":null,
        "W":[
            [
                0.9446384033566725,
                1.1704535897596358,
                1.989801294967977,
                0.09141700058054548
            ],
            [
                -0.21921154045252828,
                2.6273826378136445,
                -0.6903225474036927,
                0.46136182761100664
            ],
            [
                0.9784613601185977,
                -1.2111949674856397,
                0.17199548242515053,
                0.8148254474549357
            ],
            [
                0.8543425406975793,
                1.931686751645547,
                -1.2776409560322093,
                -1.8846205561159375
            ]
        ]
    }
]