[
    {
        "ActivationFunction":"ReLU",
        "B":[
            [
                1.2198186622641938
            ],
            [
                1.9388283245226539
            ],
            [
                -1.4820486265683268
            ],
            [
                1.77535147759597
            ],
            [
                -0.4184255569224039
            ]
        ],
        "TypeLayer":"Plain",
        "W":[
            [
                -0.63771456841779,
                0.10932293267036611,
                -0.04172054970631352
            ],
            [
                -0.7557687945652868,
                0.1695115716827277,
                1.393910501430799
            ],
            [
                -0.23404271951689656,
                0.4371810033974498,
                1.1699267784570737
            ],
            [
                -1.1268766891914932,
                -1.1647601539865389,
                -1.7000715883430924
            ],
            [
                -0.2139432849106339,
                0.5919351659709162,
                0.7314244579209126
            ]
        ]
    },
    {
        "ActivationFunction":"ReLU",
        "B":[
            [
                0.7713343973024104
            ],
            [
                -1.2665572603970459
            ],
            [
                -1.7351183121901224
            ],
            [
                -0.35916737122921866
            ]
        ],
        "TypeLayer":"Plain",
        "W":[
            [
                1.0711007553842953,
                1.8307497632746965,
                -0.3660481350436126,
                1.3096094075491418,
                0.5649581777268216
            ],
            [
                -0.04869442825255478,
                -1.2054857780304347,
                -1.075916211727908,
                0.3370721554037272,
                0.31673411188972717
            ],
            [
                0.3606366991792371,
                2.4185890411721926,
                0.8124693564163054,
                0.9871983362330874,
                -0.035053379971647244
            ],
            [
                -0.6846997534456973,
                -2.2150011007924797,
                0.34089730039761396,
                -0.6030457978298751,
                1.3878064426202634
            ]
        ]
    },
    {
        "ActivationFunction":"Sigmoid",
        "B":[
            [
                -0.09304439134453181
            ],
            [
                -1.1930449583705802
            ],
            [
                2.2969562466580813
            ],
            [
                0.6775369148587594
            ]
        ],
        "TypeLayer":"Plain",
        "W":[
            [
                1.4647163582423992,
                0.7830397015802515,
                0.8773899895848184,
                0.36534081304622
            ],
            [
                -0.28563640528972384,
                0.26378726142611236,
                -0.5090032735746685,
                -2.3664363532195587
            ],
            [
                0.7275574646853146,
                0.5383291588568013,
                -0.22853762338935227,
                -0.6097698825350251
            ],
            [
                0.7098726189156952,
                -0.3990939582291212,
                -0.422904371762145,
                2.5039483169469103
            ]
        ]
    }
]